<?xml version="1.0"?>
<opencv_storage>
<cascade>
  <stageType>BOOST</stageType>
  <featureType>HAAR</featureType>
  <height>20</height>
  <width>20</width>
  <stageParams>
    <boostType>GAB</boostType>
    <minHitRate>9.9500000476837158e-01</minHitRate>
    <maxFalseAlarm>5.0000000000000000e-01</maxFalseAlarm>
    <weightTrimRate>9.4999999999999996e-01</weightTrimRate>
    <maxDepth>1</maxDepth>
    <maxWeakCount>100</maxWeakCount></stageParams>
  <featureParams>
    <maxCatCount>0</maxCatCount>
    <featSize>1</featSize>
    <mode>BASIC</mode></featureParams>
  <stageNum>7</stageNum>
  <stages>
    <!-- stage 0 -->
    <_>
      <maxWeakCount>3</maxWeakCount>
      <stageThreshold>-1.2025312185287476e+00</stageThreshold>
      <weakClassifiers>
        <_>
          <internalNodes>
            0 -1 27 7.8591965138912201e-03</internalNodes>
          <leafValues>
            -8.6522912979125977e-01 7.7610331773757935e-01</leafValues></_>
        <_>
          <internalNodes>
            0 -1 19 -2.9792916029691696e-03</internalNodes>
          <leafValues>
            7.0689564943313599e-01 -7.9885601997375488e-01</leafValues></_>
        <_>
          <internalNodes>
            0 -1 29 1.3396659865975380e-02</internalNodes>
          <leafValues>
            -7.5971102714538574e-01 4.6155390143394470e-01</leafValues></_></weakClassifiers></_>
    <!-- stage 1 -->
    <_>
      <maxWeakCount>5</maxWeakCount>
      <stageThreshold>-1.0779137611389160e+00</stageThreshold>
      <weakClassifiers>
        <_>
          <internalNodes>
            0 -1 6 -1.6460452228784561e-02</internalNodes>
          <leafValues>
            6.6991341114044189e-01 -8.2515335083007812e-01</leafValues></_>
        <_>
          <internalNodes>
            0 -1 34 4.5414636842906475e-03</internalNodes>
          <leafValues>
            -7.9515922069549561e-01 5.6379389762878418e-01</leafValues></_>
        <_>
          <internalNodes>
            0 -1 26 1.9739121198654175e-02</internalNodes>
          <leafValues>
            -7.7342325448989868e-01 4.6434235572814941e-01</leafValues></_>
        <_>
          <internalNodes>
            0 -1 4 -1.2042598798871040e-02</internalNodes>
          <leafValues>
            6.7571991682052612e-01 -4.9575653672218323e-01</leafValues></_>
        <_>
          <internalNodes>
            0 -1 39 -1.0240231640636921e-02</internalNodes>
          <leafValues>
            4.5262554287910461e-01 -6.1784493923187256e-01</leafValues></_></weakClassifiers></_>
    <!-- stage 2 -->
    <_>
      <maxWeakCount>7</maxWeakCount>
      <stageThreshold>-9.5476996898651123e-01</stageThreshold>
      <weakClassifiers>
        <_>
          <internalNodes>
            0 -1 25 4.1020747274160385e-02</internalNodes>
          <leafValues>
            -5.9244263172149658e-01 6.4752697944641113e-01</leafValues></_>
        <_>
          <internalNodes>
            0 -1 18 -7.6836301013827324e-03</internalNodes>
          <leafValues>
            4.7255000472068787e-01 -6.3485908508300781e-01</leafValues></_>
        <_>
          <internalNodes>
            0 -1 35 -8.0490419641137123e-03</internalNodes>
          <leafValues>
            2.9092788696289062e-01 -8.6453521251678467e-01</leafValues></_>
        <_>
          <internalNodes>
            0 -1 42 -4.5905229635536671e-03</internalNodes>
          <leafValues>
            5.2132183313369751e-01 -4.7945111989974976e-01</leafValues></_>
        <_>
          <internalNodes>
            0 -1 12 -1.3528217095881701e-03</internalNodes>
          <leafValues>
            3.8947397470474243e-01 -5.4167741537094116e-01</leafValues></_>
        <_>
          <internalNodes>
            0 -1 47 -1.0770758613944054e-02</internalNodes>
          <leafValues>
            5.9252601861953735e-01 -3.6482584476470947e-01</leafValues></_>
        <_>
          <internalNodes>
            0 -1 44 -1.0552071034908295e-02</internalNodes>
          <leafValues>
            4.8446086049079895e-01 -4.2055618762969971e-01</leafValues></_></weakClassifiers></_>
    <!-- stage 3 -->
    <_>
      <maxWeakCount>5</maxWeakCount>
      <stageThreshold>-4.5851993560791016e-01</stageThreshold>
      <weakClassifiers>
        <_>
          <internalNodes>
            0 -1 21 1.2923812028020620e-03</internalNodes>
          <leafValues>
            -7.0967739820480347e-01 5.2495008707046509e-01</leafValues></_>
        <_>
          <internalNodes>
            0 -1 9 -9.4839716330170631e-03</internalNodes>
          <leafValues>
            3.4293121099472046e-01 -8.4003657102584839e-01</leafValues></_>
        <_>
          <internalNodes>
            0 -1 48 -3.3208851236850023e-03</internalNodes>
          <leafValues>
            5.1442909240722656e-01 -4.4705149531364441e-01</leafValues></_>
        <_>
          <internalNodes>
            0 -1 23 -6.4972031395882368e-04</internalNodes>
          <leafValues>
            3.5679465532302856e-01 -6.5021711587905884e-01</leafValues></_>
        <_>
          <internalNodes>
            0 -1 26 1.5817146748304367e-02</internalNodes>
          <leafValues>
            -8.4504419565200806e-01 2.1997030079364777e-01</leafValues></_></weakClassifiers></_>
    <!-- stage 4 -->
    <_>
      <maxWeakCount>9</maxWeakCount>
      <stageThreshold>-1.3008406162261963e+00</stageThreshold>
      <weakClassifiers>
        <_>
          <internalNodes>
            0 -1 36 2.5121145881712437e-03</internalNodes>
          <leafValues>
            -6.4664310216903687e-01 5.5118924379348755e-01</leafValues></_>
        <_>
          <internalNodes>
            0 -1 1 2.0842872560024261e-02</internalNodes>
          <leafValues>
            -3.6132970452308655e-01 5.8246713876724243e-01</leafValues></_>
        <_>
          <internalNodes>
            0 -1 37 1.2607460841536522e-02</internalNodes>
          <leafValues>
            -7.5712305307388306e-01 2.8928864002227783e-01</leafValues></_>
        <_>
          <internalNodes>
            0 -1 14 7.6326737180352211e-03</internalNodes>
          <leafValues>
            2.4375075101852417e-01 -8.3668524026870728e-01</leafValues></_>
        <_>
          <internalNodes>
            0 -1 5 -3.7092861020937562e-04</internalNodes>
          <leafValues>
            3.7735643982887268e-01 -4.8052376508712769e-01</leafValues></_>
        <_>
          <internalNodes>
            0 -1 16 2.5963384658098221e-02</internalNodes>
          <leafValues>
            2.3889313638210297e-01 -7.6087445020675659e-01</leafValues></_>
        <_>
          <internalNodes>
            0 -1 17 -1.2080199085175991e-03</internalNodes>
          <leafValues>
            4.2964464426040649e-01 -4.1281861066818237e-01</leafValues></_>
        <_>
          <internalNodes>
            0 -1 33 -2.2976746549829841e-05</internalNodes>
          <leafValues>
            -8.2738971710205078e-01 1.9497536122798920e-01</leafValues></_>
        <_>
          <internalNodes>
            0 -1 8 -1.8463958986103535e-03</internalNodes>
          <leafValues>
            3.5789945721626282e-01 -4.6188312768936157e-01</leafValues></_></weakClassifiers></_>
    <!-- stage 5 -->
    <_>
      <maxWeakCount>10</maxWeakCount>
      <stageThreshold>-1.2268558740615845e+00</stageThreshold>
      <weakClassifiers>
        <_>
          <internalNodes>
            0 -1 19 -4.2142346501350403e-03</internalNodes>
          <leafValues>
            5.3846156597137451e-01 -5.8333331346511841e-01</leafValues></_>
        <_>
          <internalNodes>
            0 -1 22 2.0009111613035202e-02</internalNodes>
          <leafValues>
            -3.0929639935493469e-01 6.3110536336898804e-01</leafValues></_>
        <_>
          <internalNodes>
            0 -1 20 5.4796393960714340e-03</internalNodes>
          <leafValues>
            -7.8796011209487915e-01 2.3785145580768585e-01</leafValues></_>
        <_>
          <internalNodes>
            0 -1 2 -2.7753482572734356e-03</internalNodes>
          <leafValues>
            5.0600361824035645e-01 -3.7577521800994873e-01</leafValues></_>
        <_>
          <internalNodes>
            0 -1 32 -1.4263693243265152e-02</internalNodes>
          <leafValues>
            5.0861775875091553e-01 -3.4746849536895752e-01</leafValues></_>
        <_>
          <internalNodes>
            0 -1 13 2.1078288555145264e-02</internalNodes>
          <leafValues>
            1.8073286116123199e-01 -8.1982606649398804e-01</leafValues></_>
        <_>
          <internalNodes>
            0 -1 45 1.4155630487948656e-03</internalNodes>
          <leafValues>
            -5.2477908134460449e-01 2.6730254292488098e-01</leafValues></_>
        <_>
          <internalNodes>
            0 -1 10 -1.2119472958147526e-03</internalNodes>
          <leafValues>
            2.4390812218189240e-01 -5.8716917037963867e-01</leafValues></_>
        <_>
          <internalNodes>
            0 -1 28 4.0228865109384060e-03</internalNodes>
          <leafValues>
            -8.9208680391311646e-01 1.4965142309665680e-01</leafValues></_>
        <_>
          <internalNodes>
            0 -1 11 2.8749123215675354e-02</internalNodes>
          <leafValues>
            1.0165279358625412e-01 -8.5709273815155029e-01</leafValues></_></weakClassifiers></_>
    <!-- stage 6 -->
    <_>
      <maxWeakCount>12</maxWeakCount>
      <stageThreshold>-1.4118478298187256e+00</stageThreshold>
      <weakClassifiers>
        <_>
          <internalNodes>
            0 -1 24 1.2512056156992912e-02</internalNodes>
          <leafValues>
            -5.2284264564514160e-01 5.2854895591735840e-01</leafValues></_>
        <_>
          <internalNodes>
            0 -1 15 -5.0349072553217411e-03</internalNodes>
          <leafValues>
            5.0608593225479126e-01 -3.4589579701423645e-01</leafValues></_>
        <_>
          <internalNodes>
            0 -1 31 -1.8495954573154449e-03</internalNodes>
          <leafValues>
            3.5802692174911499e-01 -4.8051357269287109e-01</leafValues></_>
        <_>
          <internalNodes>
            0 -1 40 -2.6388689875602722e-03</internalNodes>
          <leafValues>
            3.6244991421699524e-01 -4.3520429730415344e-01</leafValues></_>
        <_>
          <internalNodes>
            0 -1 38 -3.0518844723701477e-03</internalNodes>
          <leafValues>
            3.3073452115058899e-01 -5.2280873060226440e-01</leafValues></_>
        <_>
          <internalNodes>
            0 -1 0 1.5034074895083904e-02</internalNodes>
          <leafValues>
            -2.8923791646957397e-01 5.9010189771652222e-01</leafValues></_>
        <_>
          <internalNodes>
            0 -1 46 -4.3971003033220768e-03</internalNodes>
          <leafValues>
            4.7488573193550110e-01 -3.1279936432838440e-01</leafValues></_>
        <_>
          <internalNodes>
            0 -1 43 -2.0368108525872231e-02</internalNodes>
          <leafValues>
            6.7747628688812256e-01 -2.1452854573726654e-01</leafValues></_>
        <_>
          <internalNodes>
            0 -1 3 -1.4342681504786015e-02</internalNodes>
          <leafValues>
            5.7883775234222412e-01 -2.6638829708099365e-01</leafValues></_>
        <_>
          <internalNodes>
            0 -1 7 -2.5993242859840393e-02</internalNodes>
          <leafValues>
            -8.2710713148117065e-01 1.9018124043941498e-01</leafValues></_>
        <_>
          <internalNodes>
            0 -1 41 2.9890941455960274e-02</internalNodes>
          <leafValues>
            -2.6385483145713806e-01 6.1532568931579590e-01</leafValues></_>
        <_>
          <internalNodes>
            0 -1 30 -6.5673505887389183e-03</internalNodes>
          <leafValues>
            -8.2440650463104248e-01 1.6211284697055817e-01</leafValues></_></weakClassifiers></_></stages>
  <features>
    <_>
      <rects>
        <_>
          0 6 2 10 -1.</_>
        <_>
          1 6 1 10 2.</_></rects>
      <tilted>0</tilted></_>
    <_>
      <rects>
        <_>
          0 10 6 3 -1.</_>
        <_>
          2 10 2 3 3.</_></rects>
      <tilted>0</tilted></_>
    <_>
      <rects>
        <_>
          1 10 2 4 -1.</_>
        <_>
          1 10 1 2 2.</_>
        <_>
          2 12 1 2 2.</_></rects>
      <tilted>0</tilted></_>
    <_>
      <rects>
        <_>
          1 12 4 4 -1.</_>
        <_>
          3 12 2 4 2.</_></rects>
      <tilted>0</tilted></_>
    <_>
      <rects>
        <_>
          2 7 4 6 -1.</_>
        <_>
          2 7 2 3 2.</_>
        <_>
          4 10 2 3 2.</_></rects>
      <tilted>0</tilted></_>
    <_>
      <rects>
        <_>
          2 8 2 1 -1.</_>
        <_>
          3 8 1 1 2.</_></rects>
      <tilted>0</tilted></_>
    <_>
      <rects>
        <_>
          2 8 8 5 -1.</_>
        <_>
          6 8 4 5 2.</_></rects>
      <tilted>0</tilted></_>
    <_>
      <rects>
        <_>
          2 8 12 2 -1.</_>
        <_>
          8 8 6 2 2.</_></rects>
      <tilted>0</tilted></_>
    <_>
      <rects>
        <_>
          2 13 2 4 -1.</_>
        <_>
          3 13 1 4 2.</_></rects>
      <tilted>0</tilted></_>
    <_>
      <rects>
        <_>
          3 5 8 7 -1.</_>
        <_>
          7 5 4 7 2.</_></rects>
      <tilted>0</tilted></_>
    <_>
      <rects>
        <_>
          3 7 2 6 -1.</_>
        <_>
          3 7 1 3 2.</_>
        <_>
          4 10 1 3 2.</_></rects>
      <tilted>0</tilted></_>
    <_>
      <rects>
        <_>
          3 7 10 8 -1.</_>
        <_>
          8 7 5 8 2.</_></rects>
      <tilted>0</tilted></_>
    <_>
      <rects>
        <_>
          3 10 2 3 -1.</_>
        <_>
          4 10 1 3 2.</_></rects>
      <tilted>0</tilted></_>
    <_>
      <rects>
        <_>
          4 6 5 10 -1.</_>
        <_>
          4 11 5 5 2.</_></rects>
      <tilted>0</tilted></_>
    <_>
      <rects>
        <_>
          4 7 3 8 -1.</_>
        <_>
          4 11 3 4 2.</_></rects>
      <tilted>0</tilted></_>
    <_>
      <rects>
        <_>
          4 11 2 4 -1.</_>
        <_>
          5 11 1 4 2.</_></rects>
      <tilted>0</tilted></_>
    <_>
      <rects>
        <_>
          4 11 12 6 -1.</_>
        <_>
          10 11 6 6 2.</_></rects>
      <tilted>0</tilted></_>
    <_>
      <rects>
        <_>
          4 12 2 1 -1.</_>
        <_>
          5 12 1 1 2.</_></rects>
      <tilted>0</tilted></_>
    <_>
      <rects>
        <_>
          5 8 6 2 -1.</_>
        <_>
          7 8 2 2 3.</_></rects>
      <tilted>0</tilted></_>
    <_>
      <rects>
        <_>
          5 9 6 1 -1.</_>
        <_>
          7 9 2 1 3.</_></rects>
      <tilted>0</tilted></_>
    <_>
      <rects>
        <_>
          5 9 7 8 -1.</_>
        <_>
          5 13 7 4 2.</_></rects>
      <tilted>0</tilted></_>
    <_>
      <rects>
        <_>
          6 8 6 3 -1.</_>
        <_>
          9 8 3 3 2.</_></rects>
      <tilted>0</tilted></_>
    <_>
      <rects>
        <_>
          7 0 5 6 -1.</_>
        <_>
          7 2 5 2 3.</_></rects>
      <tilted>0</tilted></_>
    <_>
      <rects>
        <_>
          7 6 12 2 -1.</_>
        <_>
          11 6 4 2 3.</_></rects>
      <tilted>0</tilted></_>
    <_>
      <rects>
        <_>
          7 7 9 5 -1.</_>
        <_>
          10 7 3 5 3.</_></rects>
      <tilted>0</tilted></_>
    <_>
      <rects>
        <_>
          7 10 8 9 -1.</_>
        <_>
          7 13 8 3 3.</_></rects>
      <tilted>0</tilted></_>
    <_>
      <rects>
        <_>
          7 11 8 6 -1.</_>
        <_>
          7 13 8 2 3.</_></rects>
      <tilted>0</tilted></_>
    <_>
      <rects>
        <_>
          8 10 3 6 -1.</_>
        <_>
          8 13 3 3 2.</_></rects>
      <tilted>0</tilted></_>
    <_>
      <rects>
        <_>
          8 11 4 6 -1.</_>
        <_>
          8 13 4 2 3.</_></rects>
      <tilted>0</tilted></_>
    <_>
      <rects>
        <_>
          8 11 8 6 -1.</_>
        <_>
          8 13 8 2 3.</_></rects>
      <tilted>0</tilted></_>
    <_>
      <rects>
        <_>
          8 14 5 2 -1.</_>
        <_>
          8 15 5 1 2.</_></rects>
      <tilted>0</tilted></_>
    <_>
      <rects>
        <_>
          8 16 5 2 -1.</_>
        <_>
          8 17 5 1 2.</_></rects>
      <tilted>0</tilted></_>
    <_>
      <rects>
        <_>
          9 5 8 4 -1.</_>
        <_>
          9 5 4 2 2.</_>
        <_>
          13 7 4 2 2.</_></rects>
      <tilted>0</tilted></_>
    <_>
      <rects>
        <_>
          9 6 2 6 -1.</_>
        <_>
          9 8 2 2 3.</_></rects>
      <tilted>0</tilted></_>
    <_>
      <rects>
        <_>
          9 6 3 6 -1.</_>
        <_>
          9 8 3 2 3.</_></rects>
      <tilted>0</tilted></_>
    <_>
      <rects>
        <_>
          9 7 2 9 -1.</_>
        <_>
          9 10 2 3 3.</_></rects>
      <tilted>0</tilted></_>
    <_>
      <rects>
        <_>
          9 9 6 3 -1.</_>
        <_>
          11 9 2 3 3.</_></rects>
      <tilted>0</tilted></_>
    <_>
      <rects>
        <_>
          9 10 6 6 -1.</_>
        <_>
          9 13 6 3 2.</_></rects>
      <tilted>0</tilted></_>
    <_>
      <rects>
        <_>
          10 3 5 4 -1.</_>
        <_>
          10 5 5 2 2.</_></rects>
      <tilted>0</tilted></_>
    <_>
      <rects>
        <_>
          10 5 9 8 -1.</_>
        <_>
          13 5 3 8 3.</_></rects>
      <tilted>0</tilted></_>
    <_>
      <rects>
        <_>
          10 10 3 2 -1.</_>
        <_>
          10 11 3 1 2.</_></rects>
      <tilted>0</tilted></_>
    <_>
      <rects>
        <_>
          10 11 6 5 -1.</_>
        <_>
          12 11 2 5 3.</_></rects>
      <tilted>0</tilted></_>
    <_>
      <rects>
        <_>
          12 8 2 6 -1.</_>
        <_>
          13 8 1 6 2.</_></rects>
      <tilted>0</tilted></_>
    <_>
      <rects>
        <_>
          13 9 4 6 -1.</_>
        <_>
          13 9 2 3 2.</_>
        <_>
          15 12 2 3 2.</_></rects>
      <tilted>0</tilted></_>
    <_>
      <rects>
        <_>
          13 13 6 4 -1.</_>
        <_>
          15 13 2 4 3.</_></rects>
      <tilted>0</tilted></_>
    <_>
      <rects>
        <_>
          14 11 4 1 -1.</_>
        <_>
          16 11 2 1 2.</_></rects>
      <tilted>0</tilted></_>
    <_>
      <rects>
        <_>
          15 5 3 4 -1.</_>
        <_>
          16 5 1 4 3.</_></rects>
      <tilted>0</tilted></_>
    <_>
      <rects>
        <_>
          16 7 4 6 -1.</_>
        <_>
          16 7 2 3 2.</_>
        <_>
          18 10 2 3 2.</_></rects>
      <tilted>0</tilted></_>
    <_>
      <rects>
        <_>
          17 8 2 4 -1.</_>
        <_>
          17 8 1 2 2.</_>
        <_>
          18 10 1 2 2.</_></rects>
      <tilted>0</tilted></_></features></cascade>
</opencv_storage>

